0.809381,-0.325851,-0.394519,0.842637,0.756003,0.0464757,-0.310298,-1.10927,-0.380693,0.525699,0.712166,0.513262,-0.249715,0.342987,-0.927484,-0.951601,-0.836147,-0.625479,-0.810127,1.19619
-0.346825,0.534747,0.218478,-0.229272,-0.171042,0.853411,0.873886,0.411811,-0.355366,0.140814,0.0349458,-0.280601,-0.235315,-1.07919,-1.07175,0.54041,0.846271,-0.649528,0.562612,-0.714128
-0.26626,-0.483869,-0.890292,0.622588,0.805616,0.335904,0.665172,-0.423124,0.663777,-0.820711,0.198576,-0.744624,0.355098,-0.708497,0.055215,-0.186529,0.551455,0.189968,-0.905664,-0.245615
-0.610559,0.593992,-0.351797,0.213735,0.39461,0.184549,0.923827,-0.126363,-0.672956,1.03104,0.978682,0.325628,-0.395695,-0.406971,-0.439492,-0.360347,-0.715611,-0.663737,0.00208655,-0.692711
1.09443,-0.268602,0.970832,-0.34257,0.397871,-0.0238032,-0.314601,0.0327705,-0.801036,-0.137273,0.0401782,-0.889026,-0.73153,0.418293,0.466823,-0.982452,0.557004,-0.614642,-0.0221448,-0.630904
0.863249,-0.997672,-0.565651,0.117911,-0.754996,0.246161,-0.962361,0.036433,-0.00236366,0.18197,-0.18549,-0.0971746,0.922393,-0.572347,0.512919,0.628881,1.10878,0.518697,-0.677448,0.264583
-0.355366,0.952903,-0.611333,0.610799,0.19972,0.808753,-0.357624,-0.00481979,-0.86451,-0.783201,-0.0760463,0.248394,0.0767562,0.600689,0.351057,-0.805441,-0.56517,0.13162,-0.853128,-0.692898
-0.0594012,-0.151457,0.43302,0.131302,-0.0369951,0.274896,0.469854,-0.510154,0.0464711,0.0605124,-1.00045,0.816875,0.203279,0.0764708,-0.587789,-0.992733,-0.890212,0.793305,-0.71509,0.22645
-0.295842,-1.04314,0.287661,0.564586,-0.231145,0.304902,-0.0862648,0.907353,0.63891,-0.000818812,-0.234765,0.0592257,-0.265428,1.02708,1.20642,-0.741972,-0.574179,-0.917779,0.525864,0.0911789
-0.447255,0.710735,0.353399,-0.860211,-0.339653,-1.05042,-0.523794,-0.385036,-0.167115,-0.183963,-0.542233,1.05903,0.95113,-0.067127,0.0453871,0.140352,1.15331,0.914783,0.566857,-0.141124
0.160692,1.48976,0.827427,0.983847,2.72941,-1.13097,0.51848,0.873514,-0.714444,-0.376575
-0.808266,-1.31751,-1.19578,-0.819558,-1.42969,1.63405,-1.77252,-1.06922,-0.0312403,1.73769
-0.66237,-0.718811,-1.72571,0.103237,-3.60206,1.91931,-0.449532,-2.9256,0.179891,1.01392
-0.458413,1.84795,1.37248,-2.62187,3.83335,-1.25566,0.750421,0.835099,-0.195528,-0.988832
-1.09386,1.4787,3.1706,-2.14869,4.98737,-1.02145,0.192515,1.99766,0.106382,0.769487
-3.07544,4.66901,1.61986,-2.2769,-1.85639
-2.26397,4.93255,1.94523,-2.3751,-1.75321
-3.48032,3.52247,3.41015,-2.59374,-1.55506
-47.3985,-44.6877,-69.3835