0.782451,-0.445933,-0.469042,0.729241,0.736052,14.525,-0.39311,-0.978559,-79.783,0.729324,0.846388,76.3528,0.00971435,0.557296,77.8725,-0.769274,-0.692217,-0.570784,-93.6914,0.977784
-0.426789,0.472032,-72.9111,-0.191481,-0.20076,3.22688,-69.4084,0.417423,-0.285733,0.226027,-96.1307,-0.189591,-0.0566445,51.6683,7.69324,90.3849,0.933257,-0.70511,81.2375,-0.789939
48.5802,1.51548,-0.978943,0.522426,-49.6775,0.353804,0.622751,10.975,0.810174,-5.56603,62.741,-0.531765,0.567581,-0.532549,5.50824,31.6157,-0.974658,60.7466,1.933,-44.2147
-0.898288,0.386416,-0.630133,-59.7998,0.237634,-0.11421,0.620497,-0.368864,-0.792682,0.895974,82.2885,0.106303,82.2492,-0.501086,-0.581774,-0.482166,-0.871578,-0.84915,-0.231819,-0.884691
0.998372,-0.387555,0.837666,-0.427213,0.299858,-0.169042,-0.433062,-0.0323536,-0.85045,-0.177748,0.0387957,-0.983335,-0.792474,0.239463,0.39174,-0.993652,0.501876,-0.663991,-0.144749,-0.718311
0.905448,-65.4209,90.0385,-12.1542,-0.770077,-91.8036,-12.5912,-0.0402161,-0.185125,-0.0353679,94.0156,-2.19083,0.683416,-0.711844,0.292691,0.443357,0.920767,0.384899,-0.7861,0.389551
-0.518368,75.8071,-0.894795,0.481918,1.10697,0.583359,78.6437,-85.5341,-0.93223,-0.523855,0.0421867,0.375087,6.63382,-11.1905,0.543995,-97.3204,-0.501991,-0.0341322,7.93588,-0.910048
29.7158,-11.845,-50.8713,0.124771,0.00928495,-74.3153,0.509361,-6.8105,2.95975,0.0701337,86.6771,0.824707,0.243527,0.194749,-0.65131,30.9662,-93.8575,0.755498,-93.5239,29.0446
-42.0894,-0.914287,0.149395,0.915752,80.2124,0.626854,0.172578,-18.1863,-85.4113,-36.5958,-0.420787,-0.161275,-0.598768,-0.127682,-75.4899,-0.899061,-0.58001,86.2758,0.511769,-0.0483142
54.4167,0.81243,48.0599,-0.764187,-0.316791,-0.990178,-0.410015,76.4745,-0.345422,-0.40144,-0.552618,-170,22.3969,21.8951,-0.182875,-0.14208,0.945243,88.7671,0.55295,-0.0211335
-46.4355,110.683,-5609.63,-11.1166,331.09,-0.799963,700.475,9931.31,21.2755,1142.37
259.349,3093.83,12925,97.2285,1551.58,-102.268,4847.53,8458.78,-5.204,11003.7
-38.571,-5583.94,15060.6,0.139016,62.6228,0.267298,7643.97,23609.7,102.752,-7201.89
88.1925,-298.138,11290.6,-22.5253,370.754,-10.4845,2819.84,6660.47,72.206,-7265.31
150.839,198.967,3697.25,0.681635,-208.018,-0.773589,1787.88,-1583.35,0.394932,2095.96
-50063,36427.3,-387.409,-11681.3,121.206
62643.2,-42021.8,388.176,14796.9,-147.322