0.782708,-0.445967,-0.469039,0.924284,0.736442,-0.0658895,-0.391705,-0.978698,-0.236549,0.553789,0.846858,0.450606,-0.386303,0.557237,-0.771477,-1.16858,-0.740867,-0.56975,-0.955443,0.977844
-0.396435,0.624775,0.177587,-0.188849,-0.203223,0.83105,0.824091,0.416913,-0.100925,0.0796228,0.0483718,-0.191473,-0.0566729,-0.963988,-1.41298,1.65178,0.933103,-0.705283,0.547624,-0.790094
-0.351573,-0.538194,-0.977966,0.525987,0.840754,0.355083,0.653645,-0.342601,0.685904,-0.610096,0.0923795,-0.597003,-0.313059,-0.531541,0.361644,0.0656453,0.655751,-0.178594,-0.573717,-0.291421
0.916746,0.804987,-0.575701,-0.189581,1.14484,-0.244545,0.732322,-0.610126,-0.791437,0.735801,0.878384,0.336192,-0.189947,-0.156926,-0.180212,-1.14518,-0.0289621,-0.22956,-0.191931,-1.08655
2.7691,-0.387555,0.825037,-0.427412,0.299844,-0.169042,-0.406018,0.895871,-0.221747,-0.17777,-0.0281991,-0.983337,-0.792474,0.239479,0.493301,-0.993652,0.64449,-0.674795,-0.195318,-0.718314
0.904111,-0.936674,-0.525132,0.203528,-0.766961,0.250496,-0.849849,-0.0283212,0.775292,-0.0325327,-0.366924,-0.260353,0.694266,-0.711844,0.292093,0.583422,1.22623,0.385113,-0.785699,0.389782
-0.124454,1.38713,-1.16932,0.480087,0.0457778,1.30326,-0.356334,-0.183294,-1.74987,-0.581133,-0.186407,-0.397351,0.544115,0.739616,0.541124,-0.731437,-0.506394,0.943876,-0.83697,-0.889462
-0.109317,-0.175146,0.491989,0.117405,-0.0110782,0.402539,0.504685,-0.318949,0.168676,0.0625019,-0.958892,0.705466,0.197333,0.185095,-0.655263,-0.979431,-0.863552,0.748772,-0.714194,0.87698
-0.0533769,-0.785577,0.60094,0.843013,-0.00451674,0.638661,0.167089,0.329539,0.477493,-0.493271,-0.475692,-1.25632,-0.596973,0.742912,0.959471,-1.51131,-0.597278,-0.633595,0.724479,0.140172
-0.0626545,0.553392,0.407025,-0.761284,-0.410169,-1.80337,-1.18711,-0.0361339,-0.345805,0.572954,0.00885037,0.886746,0.245552,0.0915555,-0.336161,-0.139988,0.941404,1.09534,0.553209,-1.00992
-0.549516,0.409986,-0.199683,-0.196326,-0.351054,0.0473952,0.888577,-3.61992,-0.739616,4.13965
-1.45985,-0.860775,-2.9418,0.960997,0.586657,2.02194,-1.35759,-0.153935,-0.884976,3.75982
3.7918,-0.00384533,0.916257,-2.34275,0.627674,-0.490738,0.809381,-0.127476,4.35789,-5.13938
3.58104,1.6917,2.26194,0.443495,1.86032,-2.90497,0.92346,0.599445,-0.710898,-3.71078
4.36381,-0.559557,1.36796,1.5699,1.99747,-1.50081,-0.367595,3.51149,1.22013,-7.75301
6.23914,5.59124,-1.75787,-6.46532,-1.28663
8.44197,5.00668,-1.13416,-6.37083,-1.55504
-4.64733,-5.27607,3.48158,1.55968,3.7597
-16.5532,-10.7725,14.69