0.774597,-0.457006,23.5586,0.724083,0.722882,-0.0852855,-0.411258,-0.992766,-0.254364,0.717494,26.1718,-27.3366,-0.00910398,0.555339,-0.774755,-0.77101,-0.712219,-0.585126,-0.816338,0.960197
-82.7031,7.38038,102.353,-42.054,5.331,-14.3058,-30.6588,31.1112,-103.844,34.7678,-0.292825,109.448,16.9855,27.7842,3.06214,-21.442,-144.168,-104.995,156.429,64.8134
-0.355144,-0.538258,-0.977966,0.521505,0.840754,0.355083,0.622486,-0.287783,0.79674,-0.610096,0.342387,-0.526658,0.56737,-0.531559,0.285326,0.06562,0.655751,0.22074,-0.863643,-0.291421
-0.888474,0.393629,-0.618824,-0.0101337,0.252698,-0.09815,0.628184,-0.355511,-0.783499,0.905988,0.858794,0.112052,-0.516603,-0.487923,-0.57576,-0.483401,-0.860179,-0.840284,-0.212797,-0.867676
26.2158,23.8523,0.337165,-0.328829,0.232802,-1.7221,-1.01936,-0.0818961,0.0761626,-68.3015,55.574,-26.9603,-6.39508,0.205452,8.91482,-50.2681,0.475911,2.94302,48.326,-0.78836
93.5723,-92.176,-0.713543,0.0998761,-76.483,69.5318,-0.936605,-0.0777761,-0.340365,-0.14345,63.948,9.10025,0.65161,-0.849818,12.5438,0.321093,31.0385,-1.71273,-1.04553,-36.1245
-0.492762,0.759012,-0.897423,0.479984,1.10686,0.580688,78.6402,-0.184156,-0.930999,-0.589246,0.0388287,-74.38,0.198553,0.738528,0.540982,-0.609325,-0.50601,-0.037131,-0.97999,-0.915089
-0.160741,-44.0268,-16.3146,-60.8454,28.5129,0.631858,-2.93248,0.0193216,-67.4724,0.41607,-0.677601,22.6846,30.2143,-0.143355,0.185987,-1.85845,-1.39456,28.4587,-33.8526,5.17767
-45.2614,-0.781211,0.614001,3.15073,0.0121574,0.657873,-16.6813,0.939007,0.491252,-0.318285,31.0806,-0.0919309,33.1616,0.761523,0.979349,-0.954286,-0.58651,-0.623526,0.749006,1.57759
-0.372972,0.80771,0.407217,-0.760963,-0.316193,-0.988248,-0.411638,-0.472454,-0.344588,-0.40093,-0.67868,0.8876,0.799401,-0.190587,-0.182104,-0.1394,0.941526,0.823269,0.553598,-0.0210373
14417.3,0.762411,-0.269487,50.6202,-36.0182,12.7166,-0.310659,-3045,5099.33,-0.0725202
16474.9,-30.4898,71.9036,732.25,-12.8284,0.61008,91.8873,20858.2,21518.3,-29.5672
-169.87,134.783,64.8309,-127.495,-53.1408,-47.0055,84.3028,-3.93783,0.610645,-0.49501
3766.44,1.0012,-78.3257,283.865,0.808903,5.53457,13.9764,14132.2,1189.3,9.79535
2916.55,-24.8121,-148.501,-2281.33,-119.812,156.858,-266.326,-12285.9,-5916.66,193.398
7201.66,2779.83,-5.82019,-8453.62,-7910.26
-6910.69,-2533.69,6.26553,7990.71,7480.45