0.788772,-0.441079,-0.463236,0.729121,0.736599,-0.0666478,-0.391049,-0.978698,-0.237111,0.729491,0.847388,0.669807,0.0082403,0.556294,-0.766921,-0.76928,-5.55429,-0.570272,-0.813624,0.977844
-0.330746,0.505618,0.163276,-0.184002,-0.193218,59.9437,0.826733,0.431405,-4.71808,0.161036,-0.0071688,-0.152267,-0.071315,-1.01189,-0.899753,0.723669,-54.1105,-73.3432,169.525,-87.951
-0.355144,-0.538194,-0.977966,0.521592,0.840754,0.355083,0.622486,-0.287759,0.796991,-0.610096,0.342387,-0.526658,0.56737,-0.531541,0.285379,0.0656453,0.655751,0.22074,-0.863643,-0.291421
-0.897092,0.3865,-73.358,-0.0150545,-2.64123,-0.113426,0.621448,-0.367959,-0.790927,0.898314,0.847795,0.107406,62.2963,4.21829,-0.580425,8.20713,-0.871578,-0.847386,-0.230339,-0.884603
15.7663,54.3169,0.837458,-0.427412,0.299844,-0.169042,-0.433088,-32.3973,-0.85052,-0.17777,55.622,-0.983337,-0.792474,0.239479,14.7018,-0.993652,23.4548,-10.5459,-43.8076,-0.718314
0.901687,-0.995546,90.039,0.153864,-3.81883,-74.8121,30.5281,-0.0306418,-0.253911,-0.0686831,-0.368947,-2.20938,0.651678,-0.713276,0.292996,0.70427,0.92215,0.308271,-0.796286,-35.2916
-0.487549,0.765781,-56.6112,1.34426,0.0391565,6.04838,-58.9025,28.0335,-0.924825,-82.7924,93.6556,9.89648,-6.56459,0.755236,102.076,-0.607959,27.7135,0.27004,-0.787437,-0.881607
-0.12067,-11.8552,-13.2744,90.7428,-0.0110782,2.01636,0.504685,-50.9714,0.170629,5.35576,-0.960112,0.811268,3.67546,0.184081,-0.656151,-0.978848,-0.889756,0.748341,-0.658193,-73.5257
-68.804,-0.783507,0.61792,3.13247,-0.00277718,0.641686,0.172768,0.940321,48.6908,-0.329285,-0.460703,-0.0864629,-0.596973,0.756014,-12.7391,-0.967458,-0.586249,-0.629634,8.45232,1.56707
0.864607,0.804685,0.409897,-0.761884,-0.318451,-1.00201,2.61117,-0.478937,-83.8165,77.588,-0.68229,0.888822,0.797966,-0.182509,-0.184296,-0.141458,0.941404,91.1931,0.553209,-98.8437
745.019,-6.84622,61.7514,347.512,-77.0162,29.2543,1595.4,107.757,3224.3,2244.21
-55.3477,-0.505661,62.1526,323.852,-18.5056,-131.403,693.486,-219.116,2001.78,1814.29
-419.184,-87.2656,-209.968,-673.886,0.68491,93.5869,1015.49,-515.947,2885.45,1342.05
250.49,0.994755,-78.4095,-52.7946,0.780917,-65.9173,-1235.14,291.303,-477.941,-2202.54
197.137,30.6202,2.19096,9.25676,85.8561,-0.71021,-1468.89,1299.22,-1647.91,-1683.55
-15174.3,-209.521,-5.90132,8874.96,10226.8